<?xml version="1.0"?>
<opencv_storage>
<opencv_ml_ann_mlp>
  <format>3</format>
  <layer_sizes>
    25 10 4</layer_sizes>
  <activation_function>SIGMOID_SYM</activation_function>
  <f_param1>6.6666666666666663e-01</f_param1>
  <f_param2>1.7159000000000000e+00</f_param2>
  <min_val>-9.4999999999999996e-01</min_val>
  <max_val>9.4999999999999996e-01</max_val>
  <min_val1>-9.7999999999999998e-01</min_val1>
  <max_val1>9.7999999999999998e-01</max_val1>
  <training_params>
    <train_method>BACKPROP</train_method>
    <dw_scale>1.0000000000000000e-02</dw_scale>
    <moment_scale>0.</moment_scale>
    <term_criteria>
      <epsilon>1.0000000000000001e-09</epsilon>
      <iterations>1000</iterations></term_criteria></training_params>
  <input_scale>
    5.3795828458782031e+00 5.6823209736520343e-03 6.1564200038615162e+00
    1.1683950615527896e-03 7.0389950585068410e+00 9.1983679067173078e-03
    1.1375122560565190e+01 9.7130305174977331e-03 1.3098858583506672e+01
    6.4121250958998500e-03 1.3689421380126971e+01 2.3670554001628864e-02
    1.3782259962743638e+01 3.5122818825710904e-04 1.5338994739796066e+01
    1.1993583070451086e-02 1.5080902943959241e+01
    -1.6449971055402746e-02 1.6307691914310254e+01
    -3.9332537683701950e-03 1.6425570301847618e+01
    -1.9480626445636463e-02 1.7962455155702184e+01
    6.0480911894882613e-03 1.9898264575073320e+01
    -3.4900645269347365e-02 2.0126260508472303e+01
    -1.9612364749098915e-02 2.4781179580746809e+01
    2.4869540397188101e-02 2.8676849928451649e+01 6.6172398336604901e-03
    3.0219603836644346e+01 -5.2158456947487960e-03
    3.2091776738661466e+01 -1.6526564927566826e-02
    3.3125924785569730e+01 2.8762950446923570e-02 3.4327842408481878e+01
    -2.1994716755670878e-02 3.4310794038756043e+01
    -3.3593525982677070e-03 3.5658876990929130e+01
    -1.0504050208427790e-03 4.2019949733174549e+01
    6.7876265791010160e-03 5.7010185731164796e+01
    -1.1773829990948309e-02 6.1003475625097437e+01
    3.7961724622870313e-02</input_scale>
  <output_scale>
    5.2631578947368418e-01 4.9999999999999994e-01 5.2631578947368418e-01
    4.9999999999999994e-01 5.2631578947368418e-01 4.9999999999999994e-01
    5.2631578947368418e-01 4.9999999999999994e-01</output_scale>
  <inv_output_scale>
    1.8999999999999999e+00 -9.4999999999999996e-01
    1.8999999999999999e+00 -9.4999999999999996e-01
    1.8999999999999999e+00 -9.4999999999999996e-01
    1.8999999999999999e+00 -9.4999999999999996e-01</inv_output_scale>
  <weights>
    <_>
      -1.6833583961752736e+00 -2.2433858714910375e+00
      1.9705918958723727e+00 6.0935692533144159e-01
      -2.6772778042674417e+00 -4.4255239657276313e-01
      2.1334860006544614e+00 8.3132497215214418e-01
      1.3623161514779438e+00 -3.1165068125434265e+00
      1.2009913166474657e+00 -3.4078784760898295e-01
      1.1692629385540554e+00 -1.7723563232148701e-01
      3.9820429834102444e-01 -9.7004273852641321e-01
      6.4514292314303090e-01 -1.0028995207819345e+00
      2.6198229747877687e-02 -2.0530881486424457e+00
      3.9685285024940535e+00 3.1309271504803832e-01
      1.6196870832916999e+00 7.8922740213082732e-01
      -4.5960316679731572e-01 -3.6899138232492685e+00
      -2.6053747372523728e-01 1.9806826644501010e-01
      1.9674568679974469e+00 -7.9233982579480484e+00
      8.6307888688565804e-01 -9.4206978098314031e-01
      9.6335549758510608e-01 -4.1066874395504477e-01
      -1.2762131853831968e+00 3.1883256493601153e-01
      1.3028708123574466e+00 1.6444551814716610e-01
      -8.4168113299746994e-01 1.0715514279014187e+00
      -1.3456037192167905e+00 -3.0970651525422616e-01
      -5.0678333956300436e+00 -6.1199900889781333e-01
      2.4121885641777338e-01 1.3794356530331400e+00
      3.6361263264382371e-01 -9.5625116137098543e-01
      -5.4420496829653975e-01 5.6548052391366055e-01
      -6.5052322765709281e-01 -8.6511747681623363e-01
      1.7530079851606672e+00 6.0502219405823243e-01
      3.2799831543974206e-01 1.0245037045383916e+00
      1.5686890248245602e+00 -4.6291012852613500e-01
      5.7910057216802002e-01 5.6990458700234625e-01
      1.8927795525952296e+00 -9.4639332444379254e-01
      -1.1510269032913700e+00 1.0481527260355692e+00
      2.2129571567409201e-01 5.2911083523699531e-01
      -1.7506939190695918e+00 -1.1279277362551838e+00
      1.1721345795321501e+00 2.5892112870707713e+00
      2.1039869512386673e+00 -1.1037513632431625e-01
      5.1399405910812646e-01 4.4898058146633990e-01
      -7.8826377730298336e-04 -1.6721578377702706e+00
      3.6386231882582576e-01 5.1432426849446422e-01
      5.4665215237400810e-01 -6.1005417171896281e-01
      -1.5197518329965705e+00 1.5109492132775906e-01
      3.0921289411195625e+00 -5.2292076901607798e-01
      1.2696353103987787e-01 5.0037130587121081e-01
      3.8693114167642122e+00 1.0680589206715145e+00
      -1.2274675414424276e+00 -8.9442818937290183e-02
      -4.3236347169277883e-01 -3.6401149061004751e-01
      2.7687062366340842e-01 2.1199306269484061e-01
      -1.9581939508078117e-01 -1.8118578940599522e-01
      2.8975655254154320e-01 -9.9815510284459807e-01
      8.8769895631899931e-01 -1.4083781707078746e-01
      -2.4460521305187357e+00 2.1392055217441583e-01
      -2.9399721030441595e+00 -1.3048083227065534e+00
      2.2534748839521385e-01 6.1492350032451049e-01
      -5.7148607334938106e-01 1.1276035162458575e-01
      -1.5040780242766003e+00 -7.5453035424203274e-01
      -4.9024997825964095e-01 3.1749614124248754e-01
      2.9378263550799160e+00 5.6984812566730958e-01
      2.0919496842751126e-01 2.4039631562789662e-01
      1.8033966053819106e+00 -3.9051286809672120e-01
      9.3555013613358007e-01 -2.5240110833275653e-01
      7.7578104867452022e-02 3.6145710485607169e-01
      -4.0267547911523112e+00 5.2301432501568057e-01
      3.6779766415712223e-01 -1.1703480275835552e+00
      -3.6230928361252781e+00 -2.2325958673183363e-01
      5.2311270337979465e-01 -1.1082582909953100e+00
      9.3383258248522483e-01 -1.3400911974626209e-01
      2.1960797810646593e+00 2.5273633069902468e-01
      -1.7949743563289097e-01 -9.7491973138980081e-01
      2.1178867265911685e+00 -4.4806268054030796e-01
      5.1161749801440637e-01 -2.2540774363951166e-01
      9.2090074456842919e-01 2.3784054496142314e-02
      -1.6902407112678897e+00 -7.8785017508524388e-02
      -2.7126727032793307e-01 4.6927856726175797e-02
      -9.9505711068768354e-01 2.8952063317742766e-01
      8.5577962050494047e-02 1.0628418175683980e+00
      -2.0376616548643081e+00 -3.8443207016558451e-01
      1.1553430879086399e+00 -6.6001966695487724e-01
      -5.7414501811857518e-02 4.1211369820685118e-01
      6.6697806209923771e-01 -5.6855035947552390e-01
      -8.3968115521146092e-01 -7.4816723209435676e-01
      1.3183423993436914e+00 7.3873124288491698e-01
      -2.4218548898169065e-01 3.4387751751350654e-01
      4.7083346038699525e-01 -3.1959433183497454e-01
      -3.6890001733021793e-01 -2.7607715869133531e-01
      6.7156920372732143e-01 1.8524242852509853e-01
      -1.4693786732790544e+00 -1.6320741554814985e-01
      -2.7386368315713199e+00 -6.6234058694395948e-01
      2.0654841589268538e-01 2.0488276646259995e-01
      -1.4852418801155112e+00 -4.6530278897249588e-01
      -4.9534745587368756e-01 -3.6948715708147523e-01
      -8.6397867645966875e-01 -1.4835105165995689e-02
      -6.5476805489601719e-01 -4.3373287177163983e-01
      9.2192314056305083e-02 3.4102918648776875e-01
      5.0660670223309279e-01 -4.0109535273441893e-01
      -5.2596499375648120e-01 -1.0253234258791373e-01
      -1.8141220459284674e-01 -2.3251182234128015e-01
      1.0714495063654716e+00 -1.2305659751739256e-01
      -1.0879821527035727e-01 4.0015199065783041e-01
      6.4204326507525256e-01 9.6092357458032918e-01
      -1.0188720966718559e+00 -7.4804433724490436e-03
      -4.7114777974672495e-01 3.9049739775884840e-01
      7.8259935997262620e-01 -4.7417466689161125e-01
      -2.8656443284028707e-02 1.6731334963503935e-01
      5.1608157601624238e-01 8.2039224282358636e-01
      -6.3285528847775085e-01 -3.8657865463843250e-01
      2.1818995554928663e-01 1.8089464271060232e-01
      2.1250135831492623e-01 -4.8198425791734467e-01
      2.5572854620938411e-02 -6.9658720187847120e-02
      5.8292251606115064e-01 -2.3375120867435509e-01
      -7.1446324124858906e-01 1.0567140730714375e-01
      -2.5197602490252708e+00 3.1683127340723233e-01
      2.1660598568016209e+00 1.1692775512942850e-01
      1.6769341289458536e-01 -4.9795934714801003e-02
      3.5560455933450563e-01 7.4016031705158691e-02
      2.8457084159856198e-02 -9.7982971673671215e-01
      9.6748147533341489e-01 -2.6190501979822473e-01
      -1.4581831393144906e+00 4.3037921432156880e-02
      -1.1550554570519708e-01 4.5686242562193291e-01
      -3.2710520315605479e-01 5.7250245221086449e-01
      -1.9340068728709942e-01 8.5072723355800017e-01
      1.8461825068999178e+00 -5.1073690039826702e-01
      2.1076097783234373e+00 2.4539775015894583e-01
      -4.1570242391467976e-01 3.0882925876428091e-01
      1.0075049719026419e+00 8.9963520269623887e-01
      -3.0792588194494286e-01 1.4754886432686836e+00
      1.2871920738064571e+00 -2.1085299734052856e+00
      -3.0720009299845739e+00 1.3325890938753591e+00
      2.3287724621351971e+00 3.7440331950787975e+00
      3.4199860894443321e+00 1.5935821233930259e+00
      1.4819411896740484e+00 2.0875683941369338e-01</_>
    <_>
      1.4041311464391704e-01 7.6129768218579896e-01
      -7.0032389149434227e-01 -2.0228306096986329e-01
      1.4223159789155744e+00 1.0951267787202995e-01
      -6.8176720425007470e-02 -1.4305803113744582e+00
      1.1898143890579914e-02 -7.8422221978308382e-01
      -4.9913278098715302e-01 1.2377493277120399e+00
      8.9044240682416542e-01 7.7577109174360903e-01
      3.9913545469054318e-01 -2.1649942732213776e+00
      -1.6434513487814471e+00 -9.5448776049997158e-02
      8.9542906771447495e-02 1.6158794327820081e+00
      5.8842545520325440e-01 8.6243247186971206e-01
      -7.1146651606500766e-01 -7.5457470817652961e-01
      -1.4078774811654615e-01 7.9548518676862567e-01
      5.2024012537176945e-01 -1.1548017055959443e+00
      -7.6743260556922210e-01 -1.9538701240460432e-01
      7.3309296236976143e-02 8.9213529917265399e-01
      -9.1397782661216420e-01 -6.7977404982859291e-01
      -2.7918363732552182e-01 1.9609292486721155e+00
      4.4247111327149471e-03 -9.1676043814330432e-01
      6.5182708726576788e-01 2.8473191690599903e-01
      1.2772088463249012e+00 -3.0481416167510424e+00
      -1.0576959965942019e+00 -9.3920732491413106e-01</_></weights></opencv_ml_ann_mlp>
</opencv_storage>
